0.0401047 -0.122763 0.0626421 -0.0991074 0.101332 0.0754971 -0.00565204 0.0847208 -0.123816 
-0.146239 0.0399549 0.0235194 0.102866 -0.095289 0.0743496 0.0247088 -0.0210769 0.0337217 
0.0252444 -0.0341255 0.00563584 -0.105685 0.066947 -0.00757014 -0.114546 0.131371 0.0308199 
-0.0161328 -0.0799628 -0.0185896 0.104534 -0.117797 -0.057758 0.0932743 0.0664247 0.089428 
-0.0163987 -0.0992657 0.0247396 -0.0812432 -0.100858 0.04554 0.115377 0.0897553 -0.0565492 
0.0605863 0.0626143 -0.0236229 -0.055501 -0.0574492 -0.00105284 0.0467673 -0.162003 0.0741469 
0.0891018 -0.0193913 0.0563198 0.00707757 0.0373215 -0.0322941 0.0264347 -0.147337 -0.135495 
-0.0485283 0.045247 -0.124972 -0.0334515 -0.0584854 -0.0188745 -0.051741 -0.0985698 0.0601294 
-0.0498833 -0.0875257 0.0817601 -0.0571916 -0.00515845 -0.104248 0.0758576 0.122607 0.0267078 
-0.10459 -0.0118532 -0.0188155 0.0438694 0.103644 0.0362459 0.128841 -0.0760725 -0.08377 
-0.1535 -0.0964867 0.0389204 0.00491951 -0.035967 0.0214118 0.0513271 0.0159787 0.0563772 
-0.0808351 -0.0927335 -0.106688 0.105465 0.0623822 0.0231987 0.0699007 -0.0826614 0.0830784 
0.058403 0.0750421 -0.0903282 -0.0619373 0.0675542 0.0251713 -0.138689 0.0776111 0.00434807 
0.0722608 0.0947357 -0.136758 0.0318081 -0.0939756 -0.0156789 -0.0913982 -0.000698988 0.127219 
-0.0744434 0.0038203 -0.132919 0.0815567 0.0371378 -0.0770582 0.074346 0.119026 -0.0261123 
-0.00687648 -0.0612149 0.0778781 -0.00119121 0.0795975 -0.111378 -0.0770275 0.141954 -0.0565571 
-0.0376267 0.102927 -0.031175 -0.014612 0.0804 -0.0891132 -0.0342818 0.135958 -0.100766 
-0.029652 -0.00266145 -0.138303 -0.0221773 0.0641131 -0.0752763 0.161678 -0.0415312 0.0566852 
0.0299143 -0.0572341 -0.11912 0.0604592 0.11699 0.0979578 -0.0788273 -0.051093 -0.00972257 
-0.00579362 0.149787 -0.0240973 -0.0452135 -0.0491533 -0.0621441 -0.0758153 -0.0440221 0.116058 
-0.0420976 0.032439 0.03668 -0.0556309 0.118747 0.0712491 -0.115726 0.0148991 -0.0858851 
-0.0935493 0.101324 0.0392509 -0.132731 -0.0491572 0.144729 -0.0683743 0.027927 0.0428465 
0.0618238 0.0932948 -0.0954863 0.00279796 -0.0545219 0.103364 0.0292455 -0.0678665 -0.0894769 
0.000112537 -0.0869796 0.0618664 0.096383 -0.0753761 0.0833717 -0.0646663 -0.0903903 0.0737335 
0.0138382 -0.073524 0.0731224 0.129934 -0.11754 0.0338339 0.0599508 -0.0724806 -0.0508635 
-0.0157119 0.0871244 0.020278 -0.0684389 0.179873 0.04374 -0.0827335 -0.0165482 0.00087302 
0.0818667 0.131925 0.100335 -0.0452187 -0.0340456 -0.0338036 -0.105493 -0.000196489 -0.0840824 
-0.0181461 0.0665207 -0.110001 0.0312584 0.132046 -0.0689667 -0.0872159 0.108226 -0.049512 
0.0240869 -0.0687713 -0.0439737 0.0772528 0.0654799 0.125608 -0.0647339 -0.121035 -0.00387073 
0.0705179 0.0932617 0.0182131 0.059518 -0.0745359 -0.118911 -0.0523934 -0.0672535 0.0768795 
0.0626873 0.111516 0.109507 -0.0669449 -0.0406263 -0.0162338 -0.0341742 -0.0603732 -0.0543803 
-0.0651219 0.0889385 0.040581 0.0632959 0.00214179 0.0439245 -0.160917 -0.0994289 0.104366 
0.129294 0.0271154 0.00403174 -0.0629236 0.0730785 -0.15162 0.101203 -0.072007 -0.0270578 
-0.122327 -0.0533165 -0.0134955 -0.0804655 0.0422997 0.0885895 0.0458848 0.0749574 0.0145867 
0.0600611 -0.00665591 0.0632317 -0.0330711 -0.107314 -0.11267 0.0759912 0.0878953 -0.0552527 
-0.0993697 -0.0331192 0.151833 0.0285191 0.0642721 -0.0959465 0.0251596 -0.00943354 -0.0489805 
0.0796821 0.126648 -0.0791767 -0.0666927 -0.0253012 0.0468897 -0.0915883 -0.0999995 0.10925 
-0.0921605 -0.0800449 -0.0394493 0.0117052 -0.0626261 -0.0193798 0.0849262 0.0974399 0.122552 
0.139704 -0.0757686 0.0502194 -0.0677831 0.0995377 -0.0343268 0.0566752 -0.061271 -0.121508 
0.0728377 -0.0175037 0.0512409 0.0927438 0.0139849 0.0632935 0.00492426 -0.0397841 0.116948 
0.0319583 -0.108611 -0.0162432 -0.0536822 -0.071948 0.0169867 0.10112 -0.0705075 0.102686 
-0.0812756 0.0221976 -0.0194577 -0.120964 -0.0243615 0.0866385 -0.0516741 0.0939267 0.0919711 
-0.0533453 0.046985 -0.0215004 -0.112366 -0.0327529 0.0171993 0.0471837 -0.0903773 -0.113598 
0.034938 0.0218415 -0.0422024 -0.0549434 0.0185405 -0.0909167 -0.0905884 0.1355 0.0785372 
0.0691738 -0.118749 -0.0491487 -0.0780217 -0.0556891 0.0710698 -0.0465954 0.089932 -0.0873538 
0.0933814 0.0633055 0.0950858 -0.0137869 -0.0801214 -0.134202 -0.0710277 -0.0333438 0.090231 
0.0938808 -0.00773803 0.0792708 -0.0136601 0.123433 0.171397 -0.0494908 0.0305514 -0.0498418 
-0.0552026 -0.0269505 -0.0534028 0.0346924 0.0949111 0.130837 0.00343973 -0.028426 -0.111506 
0.0481584 0.0639148 -0.128437 0.065563 0.0873903 -0.0968094 -0.050491 -0.0369216 0.041857 
0.111915 0.0655505 0.10523 0.000482676 -0.0401503 -0.012359 -0.0840849 0.0805679 -0.145639 
-0.102841 -0.0634906 0.034434 0.128973 0.096537 -0.0576107 -0.00925261 -0.0945576 0.0529956 
0.0506392 0.0255566 0.020864 0.00554029 0.105272 0.0331988 -0.106165 -0.102282 -0.13699 
0.122689 -0.0361571 -0.138045 -0.00294232 0.0117071 0.0762459 -0.124866 0.0379475 0.056477 
0.146139 0.0153327 -0.0359249 -0.074968 -0.121554 -0.05128 0.0308094 0.0462009 -0.0263582 
0.00651673 -0.0242863 -0.144048 -0.0264922 -0.010697 -0.0139624 0.0957266 0.0426163 0.0664564 
-0.10856 -0.0163783 -0.0714751 0.093631 0.0502899 -0.0138566 -0.0133249 0.0144403 0.154826 
0.0528976 0.0558757 -0.0188472 0.0757835 -0.089643 -0.0591061 -0.012719 -0.110001 0.0783396 
-0.0331332 0.074274 0.0976231 -0.0931079 -0.0807852 -0.109486 0.0720552 0.0232277 0.0319535 
-0.0945758 0.122082 -0.0114285 0.0496164 -0.041567 -0.0111468 0.0436467 -0.121532 0.0823741 
0.0319344 -0.017527 0.106077 -0.0657887 -0.104526 0.00911337 0.115933 0.0193323 -0.0912197 
0.028746 -0.101573 0.0713318 -0.0249826 -0.0297194 -0.0819768 -0.0650413 0.0747635 0.123775 
-0.128682 0.0499832 0.128715 -0.0841845 0.0462823 0.107227 -0.080391 -0.0664192 0.0122653 
0.0175788 0.0991097 -0.0387872 -0.0725154 -0.123849 0.0947516 -0.011972 0.116529 -0.072079 
-0.118129 0.0595928 -0.07228 0.0787713 0.16138 -0.00968704 -0.0677378 0.0258032 -0.0477735 
